6.616193652153015137e-01,9.735380858182907104e-02,2.279357165098190308e-01,2.391041964292526245e-01,2.978300862014293671e-02,-1.873383671045303345e-01,-1.271325349807739258e-01,2.593302130699157715e-01,-3.283019736409187317e-02,-9.952877461910247803e-02
-2.496423944830894470e-02,2.456201612949371338e-01,-3.040845505893230438e-02,-4.740647971630096436e-02,-7.930834293365478516e-01,1.753287389874458313e-02,-9.746869653463363647e-02,1.936692297458648682e-01,1.379127521067857742e-02,-7.531049102544784546e-02
-6.584131624549627304e-03,-1.949418336153030396e-01,1.092123985290527344e-01,-1.298429816961288452e-01,-8.570889383554458618e-02,-9.266053438186645508e-01,1.641126275062561035e-01,3.121790587902069092e-01,2.840365171432495117e-01,-4.257380031049251556e-03
1.637612655758857727e-02,-3.099028952419757843e-02,-9.874453395605087280e-02,-2.287585055455565453e-03,-3.188689649105072021e-01,8.816526830196380615e-02,-7.845723628997802734e-02,7.038839161396026611e-02,-4.481222331523895264e-01,-1.503280848264694214e-01
1.982765644788742065e-01,-1.503106057643890381e-01,-1.892657428979873657e-01,-2.291404828429222107e-02,-4.175090491771697998e-01,-4.129478037357330322e-01,-9.664726257324218750e-02,-2.235382944345474243e-01,2.630707025527954102e-01,1.806576997041702271e-01
5.322816371917724609e-01,-2.428548038005828857e-01,2.012808620929718018e-01,5.991269275546073914e-02,8.216897398233413696e-02,-1.416324228048324585e-01,5.144048109650611877e-02,-6.266166269779205322e-02,8.900187164545059204e-02,2.817665971815586090e-02
1.479113399982452393e-01,7.846152782440185547e-02,1.490175276994705200e-01,5.178327858448028564e-02,-1.756210625171661377e-01,-1.371806561946868896e-01,-5.682732537388801575e-02,2.406476438045501709e-02,-9.391739219427108765e-02,-8.558169603347778320e-01
7.643970102071762085e-02,2.003876864910125732e-01,1.283012926578521729e-01,-6.787092089653015137e-01,8.204822242259979248e-02,-2.295623160898685455e-02,-1.306354403495788574e-01,2.169884294271469116e-01,-1.892710328102111816e-01,3.776285946369171143e-01
-2.364787012338638306e-01,-1.628762781620025635e-01,-2.312088198959827423e-02,-3.970743119716644287e-01,-1.212000399827957153e-01,4.366013407707214355e-01,3.857640922069549561e-02,-3.512879461050033569e-02,-5.087782144546508789e-01,-4.345381632447242737e-02
-2.550725638866424561e-01,-1.517848521471023560e-01,1.666153669357299805e-01,-5.923370644450187683e-02,9.748923033475875854e-02,3.388412594795227051e-01,8.880473673343658447e-02,-9.387480467557907104e-02,-1.519048660993576050e-01,5.262874960899353027e-01
-9.534429758787155151e-02,-1.311325728893280029e-01,-2.820168733596801758e-01,4.851351678371429443e-01,4.277073442935943604e-01,-3.386232629418373108e-02,-3.543602824211120605e-01,-7.229510545730590820e-01,1.648350954055786133e-01,5.668429136276245117e-01
-1.861865222454071045e-01,2.998569011688232422e-01,4.301760196685791016e-01,1.575023233890533447e-01,1.391379088163375854e-01,1.740533858537673950e-01,6.266513466835021973e-01,-1.374937146902084351e-01,-3.922073636204004288e-03,-6.941165775060653687e-02
4.506040364503860474e-02,-4.560685902833938599e-02,-1.124905049800872803e-01,1.110316962003707886e-01,-1.468003839254379272e-01,9.466855227947235107e-02,-8.441803604364395142e-02,1.525281369686126709e-01,3.718813359737396240e-01,-4.816669598221778870e-02
6.157090067863464355e-01,5.866138935089111328e-01,7.212633490562438965e-01,-1.423209607601165771e-01,2.878779470920562744e-01,4.184986650943756104e-01,3.799481987953186035e-01,-2.212369740009307861e-01,5.709830522537231445e-01,-5.918405950069427490e-02
8.602144122123718262e-01,4.975584745407104492e-01,-4.103101491928100586e-01,1.906191557645797729e-01
-3.418650627136230469e-01,5.094830989837646484e-01,6.528558582067489624e-02,1.952167898416519165e-01
-5.697798728942871094e-01,4.003575742244720459e-01,-2.413869351148605347e-01,8.505274653434753418e-01
-1.260786652565002441e-01,-1.545183658599853516e-01,-3.713464736938476562e-01,-1.851956397294998169e-01
3.835653141140937805e-02,-5.059727430343627930e-01,-4.434200823307037354e-01,-6.040691137313842773e-01
-3.214202225208282471e-01,1.275628507137298584e-01,-4.658170938491821289e-01,-5.567554831504821777e-01
1.194261983036994934e-01,4.688739180564880371e-01,1.051082730293273926e+00,-6.717485934495925903e-02,-2.039007246494293213e-01,-6.058161854743957520e-01
9.085559844970703125e-01,-1.967169940471649170e-01,-1.960033178329467773e-01,1.239684894680976868e-01,8.943611979484558105e-01,5.953220725059509277e-01
-1.671061515808105469e-01,-3.586844503879547119e-01,-7.528553158044815063e-02,3.736898601055145264e-01,-3.249920904636383057e-01,-3.312619924545288086e-01
-3.990755081176757812e-01,-2.803925871849060059e-01,-2.710468173027038574e-01,-2.837004363536834717e-01,4.668729305267333984e-01,-1.242376491427421570e-01
3.809280693531036377e-02,-4.138498306274414062e-01,5.428157001733779907e-02,-8.136650174856185913e-02
1.188683286309242249e-01,-2.161732017993927002e-01,3.106880486011505127e-01,2.362401187419891357e-01
1.435635797679424286e-02,4.267431199550628662e-01,-3.938585892319679260e-02,-1.771073341369628906e-01
-2.384127676486968994e-01,-4.273578524589538574e-01,3.231275379657745361e-01,-1.632034480571746826e-01
-2.684208750724792480e-01,-3.069320023059844971e-01,1.685398221015930176e-01,2.125491946935653687e-01
1.142452239990234375e+00,-2.013822495937347412e-01,2.676505744457244873e-01,-2.840650081634521484e-01
-1.939213722944259644e-01,-4.258963763713836670e-01,-2.195010632276535034e-01,-1.129903346300125122e-01
-3.369810879230499268e-01,1.322462081909179688e+00,4.330862164497375488e-01,4.804954230785369873e-01
1.351578347384929657e-02,-1.471266597509384155e-01,4.398382008075714111e-01,-1.121004521846771240e-01,4.036264121532440186e-02,-1.184658765792846680e+00,3.316502273082733154e-01,1.342663407325744629e+00
