{
  "defaults": {},
  "inputs": [
    {
      "name": "variable_0",
      "offset": 0,
      "scale": 1
    },
    {
      "name": "variable_1",
      "offset": 0,
      "scale": 1
    },
    {
      "name": "variable_2",
      "offset": 0,
      "scale": 1
    },
    {
      "name": "variable_3",
      "offset": 0,
      "scale": 1
    },
    {
      "name": "variable_4",
      "offset": 0,
      "scale": 1
    },
    {
      "name": "variable_5",
      "offset": 0,
      "scale": 1
    },
    {
      "name": "variable_6",
      "offset": 0,
      "scale": 1
    }
  ],
  "layers": [
    {
      "activation": "rectified",
      "architecture": "dense",
      "bias": [
        -0.13323543965816498,
        -0.03589816018939018,
        -0.011419783346354961,
        -0.12131950259208679,
        -0.0643865242600441,
        0.4026375114917755,
        0.15601405501365662,
        -0.12499018013477325,
        -0.5550163388252258,
        0.13878418505191803,
        -0.06155664101243019,
        -0.019861480221152306,
        -0.02406516671180725,
        -0.041720788925886154,
        0.0,
        -0.12972821295261383,
        -0.018004247918725014,
        0.08326171338558197,
        -0.11556748300790787,
        -0.28136691451072693,
        -0.2250286489725113,
        0.22578079998493195,
        -0.07366769015789032,
        -0.12487468123435974,
        0.015084137208759785,
        -0.09944367408752441,
        -0.13062629103660583,
        -0.2979755699634552,
        0.0,
        -0.010410008020699024,
        -0.04144902154803276,
        -0.2134675234556198,
        -0.18841946125030518,
        0.019185351207852364,
        -0.016583628952503204,
        0.09313064813613892,
        0.0,
        -0.40492674708366394,
        0.08954011648893356,
        0.0,
        -0.019882092252373695,
        0.022854898124933243,
        -0.00929562933743,
        -0.023076117038726807,
        0.0,
        0.2129383534193039,
        -0.1548595130443573,
        -0.02005831152200699,
        -0.08819631487131119,
        0.09442663937807083,
        -0.2776702046394348,
        -0.02711736410856247,
        0.0,
        0.23139014840126038,
        -0.1507137566804886,
        -0.007087919861078262,
        0.0,
        -0.013031893409788609,
        -0.25128600001335144,
        0.08147359639406204,
        0.3421027362346649,
        0.04706127941608429,
        -0.4874523878097534,
        -0.014563740231096745,
        -0.07486438751220703,
        -0.09090551733970642,
        -0.3304849863052368,
        -0.2132486253976822,
        0.0,
        -0.15811018645763397,
        0.23240266740322113,
        0.30415311455726624,
        -0.37370041012763977,
        -0.08015191555023193,
        0.08896279335021973,
        -0.24267715215682983,
        0.0,
        -0.25800350308418274,
        -0.16318035125732422,
        -0.07695322483778,
        -0.07276204228401184,
        -0.028565527871251106,
        0.24530914425849915,
        0.0,
        -0.03122549131512642,
        -0.04217296093702316,
        -0.6345832347869873,
        0.12061131745576859,
        0.0,
        -0.1463208794593811,
        0.0,
        0.03476005047559738,
        0.22831830382347107,
        -0.1593988984823227,
        -0.15100803971290588,
        0.048807162791490555,
        0.004357936326414347,
        -0.014195511117577553,
        -0.018172521144151688,
        -0.3403531014919281
      ],
      "weights": [
        -0.08864561468362808,
        0.07799875736236572,
        -0.1110251322388649,
        0.025846535339951515,
        -0.2845352590084076,
        -0.04894333332777023,
        0.06193386763334274,
        -0.0940794050693512,
        -0.31212377548217773,
        0.134541854262352,
        0.01640714704990387,
        0.05426892265677452,
        -0.0880543664097786,
        -0.11624057590961456,
        -0.08942556381225586,
        -0.08153750002384186,
        -0.31019264459609985,
        -0.19599628448486328,
        0.055809877812862396,
        -0.10382738709449768,
        0.165827214717865,
        0.05303329601883888,
        -0.13246147334575653,
        0.2816641628742218,
        -0.22340025007724762,
        0.1275063306093216,
        0.34944212436676025,
        -0.34783118963241577,
        -0.28408247232437134,
        -0.3799299895763397,
        0.21776995062828064,
        -0.04203111678361893,
        -0.3639167845249176,
        -0.06151704490184784,
        -0.04598293453454971,
        -0.2695696949958801,
        0.06891293823719025,
        0.12419191002845764,
        -0.09522685408592224,
        -0.20875446498394012,
        -0.18927161395549774,
        0.051309797912836075,
        -0.20236003398895264,
        -0.4126921594142914,
        0.20182712376117706,
        -0.027581794187426567,
        -0.16141259670257568,
        0.2736513912677765,
        -0.16388508677482605,
        0.21334530413150787,
        0.1862444430589676,
        -0.2430763840675354,
        -0.3021736145019531,
        -0.0452248714864254,
        -0.10612254589796066,
        0.4596429467201233,
        0.01612771302461624,
        0.3315592408180237,
        0.0276899766176939,
        0.04861278831958771,
        -0.004620830062776804,
        0.043478965759277344,
        0.27480044960975647,
        -0.09422480314970016,
        0.4657241702079773,
        0.04647029563784599,
        -0.38364559412002563,
        -0.11226272583007812,
        0.11679676175117493,
        -0.2243325561285019,
        0.09164771437644958,
        -0.08082689344882965,
        0.05810635909438133,
        -0.16442544758319855,
        -0.0011831332230940461,
        0.03994050621986389,
        -0.26390260457992554,
        -0.0846991017460823,
        -0.06780651211738586,
        0.010997042059898376,
        -0.04413760080933571,
        -0.10005699843168259,
        0.17633624374866486,
        -0.12163642793893814,
        -0.05232023075222969,
        -0.020921586081385612,
        0.1326669603586197,
        0.12362079322338104,
        -2.473744098097086e-05,
        -0.48490244150161743,
        0.437083899974823,
        -0.3130497336387634,
        0.05887459218502045,
        0.2702382206916809,
        -0.19270549714565277,
        -0.10678321868181229,
        -0.19794660806655884,
        -0.2964716851711273,
        -0.2647959291934967,
        -0.07879506796598434,
        -0.011271508410573006,
        0.15830780565738678,
        -0.06762813776731491,
        -0.03271022066473961,
        -0.2742379307746887,
        -0.146664559841156,
        -0.2820550799369812,
        -0.07759199291467667,
        0.17040057480335236,
        0.383040189743042,
        -0.17737384140491486,
        -0.2952363193035126,
        -0.18711774051189423,
        -0.09193876385688782,
        0.14826226234436035,
        -0.15926308929920197,
        -0.08174800127744675,
        -0.07004985213279724,
        -0.012132079340517521,
        0.016938591375947,
        -0.14581266045570374,
        0.3148418664932251,
        0.0128540750592947,
        0.41966456174850464,
        -0.27413809299468994,
        -0.4218697249889374,
        0.14484058320522308,
        -0.08204158395528793,
        0.1944524496793747,
        -0.3470543324947357,
        0.390674889087677,
        -0.33532223105430603,
        0.30341997742652893,
        -0.06471426039934158,
        0.14209607243537903,
        0.1895006000995636,
        0.07894919067621231,
        -0.33691170811653137,
        0.5248991847038269,
        -0.20190006494522095,
        -0.06479344516992569,
        -0.07197296619415283,
        0.17328165471553802,
        -0.33479973673820496,
        -0.07727363705635071,
        0.07343412190675735,
        0.03701627254486084,
        0.07189802080392838,
        0.2246091514825821,
        0.04421406611800194,
        0.07730334252119064,
        -0.6921055316925049,
        -0.18643881380558014,
        0.13208088278770447,
        0.04484017938375473,
        0.1942027360200882,
        0.07550428807735443,
        0.02663399651646614,
        0.05368364602327347,
        0.2943054437637329,
        -0.5898755192756653,
        -0.285891592502594,
        0.1728278398513794,
        -0.206875279545784,
        -0.18223927915096283,
        0.3677673637866974,
        0.25843486189842224,
        -0.06918800622224808,
        -0.028388570994138718,
        -0.1920785903930664,
        -0.12263792008161545,
        0.4170295298099518,
        -0.04693685472011566,
        0.2276209145784378,
        -0.3650381863117218,
        0.02481180988252163,
        0.09966026246547699,
        -0.5122742652893066,
        0.07020559906959534,
        -0.3472035229206085,
        0.06909121572971344,
        0.26339125633239746,
        0.171479731798172,
        -0.22272565960884094,
        -0.10800373554229736,
        -0.2404625415802002,
        0.1536637544631958,
        -0.06821472942829132,
        -0.36300304532051086,
        0.20101992785930634,
        -0.09144368767738342,
        -0.25711384415626526,
        -0.005199935752898455,
        0.20532703399658203,
        -0.09670046716928482,
        -0.05308811739087105,
        -0.127954363822937,
        -0.05820135399699211,
        -0.09958811104297638,
        -0.2311776876449585,
        0.10807067155838013,
        -0.11218586564064026,
        -0.11144758760929108,
        -0.22388625144958496,
        -0.16118904948234558,
        0.1468355357646942,
        -0.03782208263874054,
        -0.41798821091651917,
        0.2512780427932739,
        -0.021822188049554825,
        0.061299704015254974,
        -0.036719802767038345,
        0.01658618077635765,
        -0.22454488277435303,
        -0.33736175298690796,
        0.023991042748093605,
        -0.1188279539346695,
        -0.027320126071572304,
        -0.19085079431533813,
        0.010370918549597263,
        -0.3910669982433319,
        0.17147907614707947,
        0.0352291613817215,
        0.033105578273534775,
        0.1701122522354126,
        0.4769425392150879,
        -0.05892675369977951,
        0.123000867664814,
        -0.031303539872169495,
        0.033107105642557144,
        -0.3868004381656647,
        -0.02065756544470787,
        0.04451414570212364,
        0.20827782154083252,
        -0.5070034265518188,
        -0.00013053315342403948,
        -0.18194791674613953,
        0.4732390344142914,
        -0.3067243993282318,
        -0.00029463053215295076,
        0.020710481330752373,
        -0.11835666000843048,
        0.09812381863594055,
        -0.042802777141332626,
        -0.1650310456752777,
        -0.16586269438266754,
        -0.16220636665821075,
        -0.03948293253779411,
        -0.1671493798494339,
        -0.06421872228384018,
        -0.07861441373825073,
        0.7482575178146362,
        -0.1773121953010559,
        -0.18261125683784485,
        0.1893194615840912,
        -0.07791566103696823,
        -0.02407633326947689,
        -0.18285813927650452,
        -0.17509672045707703,
        0.37205836176872253,
        0.022441482171416283,
        0.12050432711839676,
        -0.23460054397583008,
        0.09898118674755096,
        0.016218705102801323,
        0.18851500749588013,
        0.4366471469402313,
        -0.5225063562393188,
        0.015795715153217316,
        0.032511547207832336,
        0.0395575575530529,
        0.13184675574302673,
        -0.10168556869029999,
        -0.21930557489395142,
        0.07452165335416794,
        -0.02212410606443882,
        0.08960852771997452,
        -0.018069002777338028,
        -0.03551355376839638,
        -0.1807449758052826,
        0.001670866273343563,
        -0.07572226971387863,
        -0.03635381534695625,
        -0.07528721541166306,
        -0.03136756271123886,
        -0.17251302301883698,
        0.0704517737030983,
        0.18779006600379944,
        -0.03438941389322281,
        -0.02799149788916111,
        0.009219544008374214,
        -0.5568177700042725,
        0.5270317196846008,
        0.05084368586540222,
        -0.15413732826709747,
        -0.1948522925376892,
        -0.0691731721162796,
        0.10797679424285889,
        -0.10020755976438522,
        0.0025637855287641287,
        -0.13807296752929688,
        0.009635498747229576,
        -0.1478644162416458,
        -0.2942047119140625,
        -0.25132349133491516,
        -0.17744068801403046,
        0.002896395744755864,
        0.15024025738239288,
        0.025141481310129166,
        -0.08941298723220825,
        -0.020601265132427216,
        0.06256093829870224,
        -0.05237063765525818,
        -0.20788270235061646,
        -0.09859730303287506,
        0.040327806025743484,
        0.26993685960769653,
        -0.029026318341493607,
        0.2654775381088257,
        -0.5095048546791077,
        -0.3116932511329651,
        -0.06530633568763733,
        -0.2909448444843292,
        -0.12653376162052155,
        -0.28041449189186096,
        0.04091963171958923,
        0.2672114670276642,
        -0.07866644859313965,
        -0.11035715043544769,
        0.0674334466457367,
        0.023923860862851143,
        -0.08586714416742325,
        -0.008898633532226086,
        -0.05514199659228325,
        -0.298167884349823,
        0.03068152442574501,
        -0.026305900886654854,
        -0.18185031414031982,
        -0.15002135932445526,
        0.12062050402164459,
        -0.06530331820249557,
        -0.05244991183280945,
        -0.11581204831600189,
        -0.27375441789627075,
        0.3971026539802551,
        0.09034968912601471,
        0.19635215401649475,
        0.20761549472808838,
        -0.5410925149917603,
        -0.11373045295476913,
        0.06527169793844223,
        0.372288316488266,
        -0.36265137791633606,
        -0.021630318835377693,
        0.062230028212070465,
        0.29325219988822937,
        0.04372645169496536,
        -0.2490650862455368,
        0.036605339497327805,
        -0.08937191963195801,
        -0.1519353985786438,
        0.12719686329364777,
        -0.023317556828260422,
        -0.2327742874622345,
        -0.20683138072490692,
        -0.2368648648262024,
        -0.10325753688812256,
        -0.023911165073513985,
        0.03739982098340988,
        -0.2613595426082611,
        0.10911032557487488,
        -0.4633614420890808,
        -0.02909032814204693,
        0.028591925278306007,
        0.1995299756526947,
        -0.49221378564834595,
        0.17450934648513794,
        0.08544347435235977,
        -0.08564674109220505,
        0.12816603481769562,
        -0.20760487020015717,
        0.1611885279417038,
        -0.42932745814323425,
        0.16725508868694305,
        -0.13644146919250488,
        0.360541969537735,
        -0.4465547502040863,
        -0.032492343336343765,
        0.17086093127727509,
        0.07888002693653107,
        -0.35868537425994873,
        0.30355823040008545,
        -0.006772020366042852,
        -0.013735723681747913,
        -0.08152440190315247,
        -0.0154583640396595,
        -0.0530737079679966,
        -0.11779990792274475,
        0.048351485282182693,
        0.26154667139053345,
        -0.5344799160957336,
        -0.13033923506736755,
        -0.018991414457559586,
        0.1977648288011551,
        0.06670653074979782,
        0.37391188740730286,
        -0.11344163864850998,
        -0.27096861600875854,
        -0.047055087983608246,
        -0.03893505036830902,
        -0.25737741589546204,
        0.24804437160491943,
        0.35874491930007935,
        -0.1566542088985443,
        0.04943070560693741,
        0.11662368476390839,
        0.03757135942578316,
        -0.21643899381160736,
        0.6547648310661316,
        -0.46976780891418457,
        0.435750275850296,
        -0.16166986525058746,
        0.08148019760847092,
        0.12311848253011703,
        0.020827651023864746,
        -0.3970282971858978,
        -0.327481210231781,
        0.03506448492407799,
        -0.3353576958179474,
        0.10724631696939468,
        0.378487229347229,
        0.22188706696033478,
        -0.3075362741947174,
        -0.28706294298171997,
        -0.025178108364343643,
        0.09909804910421371,
        -0.07293026149272919,
        0.37104567885398865,
        0.05878578871488571,
        0.2000957727432251,
        -0.002145805861800909,
        0.055730849504470825,
        0.0557946152985096,
        -0.05802437290549278,
        -0.34267595410346985,
        0.04203982278704643,
        0.006590130273252726,
        -0.34637004137039185,
        0.16055767238140106,
        0.06906163692474365,
        0.18637561798095703,
        -0.217369943857193,
        -0.12645085155963898,
        0.573584794998169,
        -0.46896010637283325,
        -0.02075430192053318,
        0.05853881686925888,
        -0.2642842233181,
        0.1485360562801361,
        -0.20941701531410217,
        -0.08230338990688324,
        -0.16450543701648712,
        0.3266999423503876,
        0.0755070373415947,
        0.01641816832125187,
        0.15395164489746094,
        0.08671978861093521,
        -0.38971656560897827,
        0.20239731669425964,
        -0.1997416466474533,
        -0.16112534701824188,
        -0.1935308426618576,
        -0.1746698021888733,
        0.02997073158621788,
        0.33928415179252625,
        0.04643969237804413,
        -0.06059270352125168,
        -0.11751291900873184,
        -0.10867086797952652,
        -0.029702557250857353,
        -0.16223695874214172,
        -0.04920334741473198,
        -0.12869088351726532,
        -0.5542079210281372,
        0.3775513470172882,
        0.26545435190200806,
        0.12424022704362869,
        0.02143232524394989,
        0.128679096698761,
        -0.18640834093093872,
        0.14535731077194214,
        0.1493237167596817,
        0.17133614420890808,
        -0.2473045438528061,
        -0.30993372201919556,
        -0.2939508259296417,
        0.29267412424087524,
        0.17823763191699982,
        0.004604819696396589,
        0.30441898107528687,
        -0.538043200969696,
        0.1971595138311386,
        -0.19712522625923157,
        -0.2836960256099701,
        -0.03772386163473129,
        0.6196783185005188,
        -0.20525363087654114,
        0.25203874707221985,
        0.15123823285102844,
        -0.162419855594635,
        0.017910391092300415,
        -0.4145665466785431,
        -0.4236879050731659,
        -0.042947959154844284,
        0.04557164013385773,
        0.33858537673950195,
        0.18298882246017456,
        0.0823172926902771,
        -0.39634793996810913,
        0.3124193847179413,
        0.11324019730091095,
        0.0543527714908123,
        0.16275456547737122,
        -0.46138259768486023,
        0.18992529809474945,
        -0.15970754623413086,
        0.4840604066848755,
        0.08562055975198746,
        -0.42831456661224365,
        -0.025596726685762405,
        0.04591703787446022,
        0.4520387649536133,
        -0.14649777114391327,
        -0.049400344491004944,
        -0.01050823088735342,
        -0.11552350968122482,
        -0.2392275184392929,
        -0.06912025809288025,
        -0.1876024603843689,
        0.19221173226833344,
        -0.18888667225837708,
        0.22190065681934357,
        -0.3024522662162781,
        0.3180510699748993,
        0.15664975345134735,
        0.015289637260138988,
        0.35047852993011475,
        -0.349989116191864,
        -0.2125808149576187,
        0.3883245587348938,
        -0.031078534200787544,
        0.20221146941184998,
        0.10945919901132584,
        -0.37526804208755493,
        0.07370269298553467,
        -0.16621308028697968,
        -0.004753548186272383,
        -0.27414587140083313,
        -0.050600238144397736,
        0.07363253831863403,
        -0.1725890040397644,
        0.1590031087398529,
        -0.04668458551168442,
        0.13114838302135468,
        -0.4519541263580322,
        0.2986689507961273,
        0.2863297760486603,
        0.10689355432987213,
        -0.028583496809005737,
        0.21614187955856323,
        -0.27440905570983887,
        -0.23747774958610535,
        -0.27530637383461,
        -0.1160268634557724,
        0.0013458277098834515,
        0.191263809800148,
        -0.10452219098806381,
        0.41819554567337036,
        -0.5298845171928406,
        -0.23593582212924957,
        0.1212845891714096,
        -0.16626186668872833,
        -0.16693153977394104,
        0.06404983997344971,
        0.01876862905919552,
        -0.08720647543668747,
        -0.014677374623715878,
        -0.09963739663362503,
        -0.12600280344486237,
        -0.27320924401283264,
        0.0756758451461792,
        0.047830045223236084,
        -0.009351570159196854,
        -0.16530030965805054,
        0.06792523711919785,
        -0.20165348052978516,
        0.5867099761962891,
        -0.00691211735829711,
        -0.4066270887851715,
        0.07954734563827515,
        -0.04326149821281433,
        0.023276127874851227,
        -0.15262512862682343,
        0.11194117367267609,
        0.05032038316130638,
        0.22187523543834686,
        0.1820228099822998,
        0.21345055103302002,
        0.3705402910709381,
        -0.053149960935115814,
        -0.0136838648468256,
        0.25195080041885376,
        0.09768923372030258,
        -0.5170466303825378,
        -0.2749735116958618,
        0.40150442719459534,
        -0.1334514617919922,
        -0.11174879223108292,
        -0.03597797453403473,
        0.03024776466190815,
        0.08066592365503311,
        -0.18860042095184326,
        -0.017076998949050903,
        0.047096677124500275,
        0.3207895755767822,
        0.10812816768884659,
        0.03662234917283058,
        0.31503230333328247,
        -0.27981141209602356,
        -0.30640316009521484,
        -0.3066119849681854,
        -0.2680819034576416,
        0.05769652873277664,
        -0.16603709757328033,
        -0.03769337013363838,
        0.10358480364084244,
        -0.047427717596292496,
        0.05553876608610153,
        0.13802234828472137,
        0.17850090563297272,
        -0.4982348084449768,
        0.06575154513120651,
        0.24730530381202698,
        -0.2813574969768524,
        0.30590391159057617,
        -0.500583827495575,
        0.17418579757213593,
        -0.408988356590271,
        -0.03013339824974537,
        0.1666249930858612,
        0.12679585814476013,
        -0.1426611989736557,
        -0.07530831545591354,
        -0.03868701681494713,
        -0.059294167906045914,
        0.006137074436992407,
        0.055165890604257584,
        0.024547290056943893,
        0.0409696102142334,
        0.030531100928783417,
        -0.2873876690864563,
        -0.36283352971076965,
        0.09778372198343277,
        -0.05614689737558365,
        -0.10628622770309448,
        0.032130517065525055,
        0.2061634361743927,
        0.04268975555896759,
        0.2568144202232361,
        0.2267107367515564,
        -0.7281849980354309,
        0.003013440640643239,
        -0.18244919180870056,
        -0.46727338433265686,
        0.22688139975070953,
        0.10747876763343811,
        0.42682942748069763,
        -0.1645997017621994,
        0.1759231835603714,
        -0.07669419050216675,
        -0.11380640417337418,
        0.11082922667264938,
        -0.12226243317127228,
        -0.01353894080966711,
        0.009199274703860283,
        -0.0811915174126625,
        0.12783271074295044,
        -0.17042888700962067,
        0.02030184492468834,
        -0.040090374648571014,
        -0.10411514341831207,
        0.007492417935281992,
        -0.22627736628055573,
        0.11444292217493057,
        -0.024059772491455078,
        -0.512661337852478,
        0.128558948636055,
        0.09782633185386658,
        0.3758641481399536,
        0.01727677322924137
      ]
    },
    {
      "activation": "rectified",
      "architecture": "dense",
      "bias": [
        0.05561614781618118,
        0.2099514752626419,
        -0.18096990883350372,
        -0.04249698668718338,
        -0.08077392727136612,
        -0.05801929906010628,
        -0.06810340285301208,
        -0.2191937267780304,
        -0.08513953536748886,
        0.0035891057923436165,
        -0.19122369587421417,
        0.020980937406420708,
        -0.2829109728336334,
        -0.0468873493373394,
        0.20240117609500885,
        -0.053127601742744446,
        -0.05046979710459709,
        -0.06193048134446144,
        -0.07948258519172668,
        0.08467400074005127,
        -0.2173987179994583,
        -0.020342309027910233,
        0.08945562690496445,
        -0.02709568850696087,
        -0.05666234716773033,
        -0.023847173899412155,
        0.07063457369804382,
        -0.04422235116362572,
        -0.03376905992627144,
        -0.06661727279424667,
        -0.14406989514827728,
        -0.03167311102151871,
        -0.1520283967256546,
        -0.24536284804344177,
        -0.021281789988279343,
        0.20296397805213928,
        -0.022332029417157173,
        0.06270663440227509,
        -0.016454538330435753,
        -0.05876042693853378,
        -0.035646505653858185,
        -0.06761156022548676,
        -0.045420944690704346,
        -0.30185461044311523,
        -0.023064106702804565,
        -0.21935155987739563,
        -0.04337476193904877,
        0.26979655027389526,
        -0.05594972148537636,
        -0.07326759397983551,
        -0.025970134884119034,
        -0.05190033093094826,
        -0.06045875325798988,
        -0.4702596366405487,
        0.07073487341403961,
        -0.04585229977965355,
        -0.31542807817459106,
        -0.08092407882213593,
        -0.25383397936820984,
        -0.07981563359498978,
        -0.14941081404685974,
        -0.046205777674913406,
        0.12519505620002747,
        -0.2228090763092041,
        -0.0609462670981884,
        -0.05881442874670029,
        0.07945731282234192,
        0.09354083985090256,
        -0.32547643780708313,
        0.11158768087625504,
        -0.10698159039020538,
        -0.28427374362945557,
        -0.22343675792217255,
        -0.05717146396636963,
        0.11490508168935776,
        -0.07419105619192123,
        -0.03834924474358559,
        0.09797658026218414,
        -0.4723355174064636,
        0.13635003566741943,
        0.20383214950561523,
        0.0008998682606033981,
        -0.04621263965964317,
        -0.031700167804956436,
        -0.03156869858503342,
        -0.07921859622001648,
        0.06170066446065903,
        -0.0017265023197978735,
        0.10375136882066727,
        -0.2890615463256836,
        -0.26241493225097656,
        -0.04357529059052467,
        -0.04279168322682381,
        -0.031399548053741455,
        -0.05518448352813721,
        -0.029775995761156082,
        0.041054122149944305,
        -0.08920057117938995,
        -0.06175342947244644,
        -0.09464040398597717
      ],
      "weights": [
        0.04330878332257271,
        -0.04856359213590622,
        0.03762023150920868,
        0.1383826732635498,
        0.14973440766334534,
        -0.028625352308154106,
        0.013444112613797188,
        0.2358705699443817,
        -0.22868457436561584,
        0.052594952285289764,
        0.11452791839838028,
        -0.02320217341184616,
        -0.1506645828485489,
        0.028032224625349045,
        -0.018025275319814682,
        -0.1184830367565155,
        -0.07443451881408691,
        -0.05150881037116051,
        0.3757481873035431,
        0.09605570137500763,
        0.19122180342674255,
        -0.4216294586658478,
        -0.3402535319328308,
        0.2489563226699829,
        -0.48279350996017456,
        0.020556464791297913,
        0.027527039870619774,
        0.007332509383559227,
        0.10717553645372391,
        -0.2380865216255188,
        -0.2153654545545578,
        -0.0402308814227581,
        -0.23358266055583954,
        0.4856834411621094,
        0.1068623811006546,
        0.37505191564559937,
        -0.08127158135175705,
        0.09719355404376984,
        0.11507724970579147,
        -0.0965212881565094,
        0.024045128375291824,
        0.05616530776023865,
        0.01815488189458847,
        0.07146046310663223,
        0.002861194545403123,
        -0.39591068029403687,
        0.1349201500415802,
        -0.1222418025135994,
        0.0035426935646682978,
        -0.5211695432662964,
        0.07436036318540573,
        -0.1774701476097107,
        0.07027936726808548,
        -0.41023993492126465,
        -0.31144285202026367,
        0.10526847094297409,
        0.07289466261863708,
        0.42028412222862244,
        -0.10363075137138367,
        0.03749602660536766,
        -0.3608209490776062,
        -0.0062713162042200565,
        -0.22763332724571228,
        0.043249472975730896,
        0.008156171068549156,
        -0.2021133005619049,
        0.0383869931101799,
        0.11341899633407593,
        0.004365398082882166,
        0.06302278488874435,
        0.04618080332875252,
        0.13262306153774261,
        -0.5719901919364929,
        0.3889279365539551,
        0.0665520653128624,
        0.16532614827156067,
        0.07368778437376022,
        0.2682609260082245,
        -0.15693819522857666,
        0.21451431512832642,
        -0.2951100170612335,
        -0.22035625576972961,
        -0.7291973233222961,
        -0.09528303891420364,
        -0.13348302245140076,
        0.1343882977962494,
        -0.11655611544847488,
        -0.39642441272735596,
        -0.20232324302196503,
        -0.1715456247329712,
        -0.16880053281784058,
        0.17047303915023804,
        0.2980600595474243,
        0.0030335807241499424,
        0.0760572999715805,
        -1.0310919284820557,
        0.25007033348083496,
        -0.09754747897386551,
        -0.031858570873737335,
        -0.18598921597003937,
        0.10456114262342453,
        -0.01952228508889675,
        0.027328219264745712,
        -0.01008255872875452,
        0.10593587160110474,
        0.3410319685935974,
        0.09547074139118195,
        -0.007115010172128677,
        -0.19052177667617798,
        -0.22518688440322876,
        -0.10956915467977524,
        -0.004934343975037336,
        0.01955544576048851,
        -0.07810657471418381,
        -0.02064116671681404,
        0.03112453781068325,
        0.22039847075939178,
        -0.21969416737556458,
        -0.33495375514030457,
        0.04790963605046272,
        0.07219827175140381,
        0.1252906769514084,
        -0.15766207873821259,
        0.17227251827716827,
        0.01617830991744995,
        -0.22748291492462158,
        0.2905401885509491,
        -0.26792657375335693,
        -0.14528287947177887,
        0.012025299482047558,
        0.04513942822813988,
        0.09265570342540741,
        -0.38422131538391113,
        0.1867949217557907,
        0.12313032150268555,
        0.5503832101821899,
        -0.11648374050855637,
        -0.13529817759990692,
        -0.1533985584974289,
        -0.17304620146751404,
        -0.07735896110534668,
        0.12488348037004471,
        -0.0993414893746376,
        -0.1807139366865158,
        0.12564687430858612,
        -0.10420017689466476,
        -0.5612514019012451,
        -0.1585647612810135,
        -0.09079448133707047,
        -0.010757734067738056,
        -0.1907418966293335,
        0.0414474755525589,
        -0.05216893181204796,
        0.4126678705215454,
        -0.19119487702846527,
        -0.1972154825925827,
        -0.16020213067531586,
        -0.14791610836982727,
        -0.4596838057041168,
        0.4329417645931244,
        -0.5201457142829895,
        0.14665694534778595,
        -0.07483138889074326,
        -0.21577492356300354,
        -0.17239944636821747,
        0.0560450442135334,
        -0.673160970211029,
        0.41826048493385315,
        0.05969768390059471,
        0.1611090451478958,
        -0.04678003117442131,
        -0.3453873097896576,
        -0.2956005334854126,
        -0.01259791199117899,
        0.3347935080528259,
        0.11249999701976776,
        -0.16222521662712097,
        -0.11385322362184525,
        -0.09770752489566803,
        -0.018356313928961754,
        0.19347374141216278,
        0.07002618163824081,
        0.005511789117008448,
        -0.029681241139769554,
        0.13147446513175964,
        -0.12268387526273727,
        0.011824361979961395,
        0.1806972622871399,
        -0.13736416399478912,
        -0.6691627502441406,
        0.10371637344360352,
        -0.34220510721206665,
        0.13809773325920105,
        -0.024744639173150063,
        0.050488751381635666,
        -0.3365837335586548,
        0.10235484689474106,
        -0.06843103468418121,
        -0.08054965734481812,
        -0.3819582164287567,
        0.12231092900037766,
        -0.016947763040661812,
        0.13516707718372345,
        0.2098737359046936,
        -0.07448479533195496,
        -0.28413617610931396,
        -0.016915155574679375,
        0.1099943295121193,
        0.20407751202583313,
        -0.04639400914311409,
        -0.04897589981555939,
        0.00959500577300787,
        -0.0716385543346405,
        0.045518409460783005,
        -0.10637104511260986,
        -0.22949481010437012,
        0.1024651899933815,
        0.19754378497600555,
        0.36783358454704285,
        -0.16152527928352356,
        0.10723341256380081,
        -0.5626816749572754,
        0.11230674386024475,
        0.11413675546646118,
        0.07003143429756165,
        0.2980189323425293,
        0.09038454294204712,
        -0.19748088717460632,
        -0.052466731518507004,
        -0.17978964745998383,
        0.024766653776168823,
        -0.2183033972978592,
        -0.14283007383346558,
        0.1410973072052002,
        -0.07466010004281998,
        0.19304217398166656,
        -0.008411348797380924,
        0.13445952534675598,
        -0.03643401339650154,
        -0.14111854135990143,
        -0.006770889274775982,
        -0.47813287377357483,
        0.11205025017261505,
        0.026617631316184998,
        -0.12621209025382996,
        -0.26227083802223206,
        -0.2225123643875122,
        0.09644923359155655,
        0.016845887526869774,
        -0.05700717493891716,
        0.35187673568725586,
        -0.06343880295753479,
        0.1022631973028183,
        -0.20168058574199677,
        -0.0920579582452774,
        -0.0643344298005104,
        -0.09344539791345596,
        0.2776836156845093,
        0.37876662611961365,
        -0.39829376339912415,
        -0.2939458191394806,
        0.07248564064502716,
        0.2738802433013916,
        -0.014799533411860466,
        -0.22893768548965454,
        0.2569570541381836,
        0.01490243524312973,
        -0.2371622771024704,
        0.12601755559444427,
        0.009139897301793098,
        -0.42145493626594543,
        0.10316051542758942,
        0.22778283059597015,
        0.3341706693172455,
        -0.03092479333281517,
        0.16386666893959045,
        0.1983911097049713,
        0.271835595369339,
        0.0727255642414093,
        0.07658874988555908,
        -0.23969438672065735,
        0.1253243088722229,
        -0.6820064783096313,
        0.20000770688056946,
        0.19377237558364868,
        0.12323202937841415,
        0.4216966927051544,
        -0.35748180747032166,
        -0.017372174188494682,
        0.18994157016277313,
        0.01731390692293644,
        0.1983594000339508,
        -0.19687190651893616,
        0.1254536211490631,
        0.13711853325366974,
        0.07127491384744644,
        0.45026275515556335,
        -0.07070878893136978,
        -0.07235678285360336,
        0.12581294775009155,
        0.04118714481592178,
        -0.07323084026575089,
        -0.13709159195423126,
        -0.1160360798239708,
        -0.007466025184839964,
        -0.12389913201332092,
        -0.11607082188129425,
        -0.1076679453253746,
        -0.1417912393808365,
        -0.05666164308786392,
        -0.13170818984508514,
        0.0049957758747041225,
        -0.02249068208038807,
        -0.0970379188656807,
        -0.06829451024532318,
        -0.04428400099277496,
        0.0066095031797885895,
        0.0655646100640297,
        -0.21169117093086243,
        -0.0723714604973793,
        -0.14388233423233032,
        -0.055124539881944656,
        -0.06247676536440849,
        -0.02482009120285511,
        0.08555281162261963,
        0.07087178528308868,
        -0.11183629184961319,
        0.16358935832977295,
        -0.030779188498854637,
        0.19566264748573303,
        0.1177191436290741,
        0.020565900951623917,
        -0.051853228360414505,
        -0.18496206402778625,
        0.009624946862459183,
        -0.08544716984033585,
        0.09867815673351288,
        -0.11625175178050995,
        -0.23295395076274872,
        0.12440240383148193,
        -0.07832518219947815,
        -0.0015376174123957753,
        -0.0022327862679958344,
        -0.1738421618938446,
        0.10662007331848145,
        0.12472440302371979,
        0.08918283134698868,
        -0.09635970741510391,
        0.1262257844209671,
        0.1374838501214981,
        0.10053461045026779,
        -0.08556784689426422,
        -0.1013716608285904,
        -0.015188748016953468,
        0.08369827270507812,
        0.05207482725381851,
        0.03314005210995674,
        0.13147950172424316,
        -0.06873977929353714,
        -0.017047841101884842,
        0.04356756433844566,
        0.08922147005796432,
        -0.09471293538808823,
        -0.0003289715969003737,
        -0.15235604345798492,
        -0.09772241860628128,
        0.13092100620269775,
        0.03285874426364899,
        -0.04276692867279053,
        -0.06393131613731384,
        -0.05267154052853584,
        -0.12936407327651978,
        -0.2029898762702942,
        0.007946116849780083,
        -0.18608523905277252,
        -0.05448109284043312,
        0.08450701087713242,
        -0.19521354138851166,
        -0.23947611451148987,
        -0.06714089214801788,
        -0.050578776746988297,
        -0.08562891185283661,
        0.06841615587472916,
        -0.01343731302767992,
        -0.06110911816358566,
        -0.06090002506971359,
        0.06539175659418106,
        -0.09917617589235306,
        0.21390676498413086,
        -0.015551659278571606,
        0.0902174636721611,
        -0.19992245733737946,
        -0.1212448850274086,
        0.06584180146455765,
        0.11403363198041916,
        -0.18170040845870972,
        -0.005007483530789614,
        0.03883522003889084,
        -0.13451535999774933,
        0.14967365562915802,
        -0.11997383087873459,
        0.0006383895524777472,
        -0.11436488479375839,
        -0.14749804139137268,
        -0.09397468715906143,
        0.11015075445175171,
        0.08085606247186661,
        0.05840630456805229,
        -0.16031216084957123,
        0.09465695917606354,
        -0.10020093619823456,
        -0.05736297741532326,
        0.032903965562582016,
        -0.19447728991508484,
        -0.048321761190891266,
        0.13782551884651184,
        0.17695942521095276,
        0.1465117186307907,
        -0.05545548349618912,
        -0.11321243643760681,
        0.007484106346964836,
        -0.1745014786720276,
        -0.05678339675068855,
        -0.003998452331870794,
        -0.01304708980023861,
        0.01333076786249876,
        -0.1872277557849884,
        0.2059822678565979,
        -0.0945308580994606,
        -0.11074639111757278,
        0.11061994731426239,
        -0.16674500703811646,
        -0.18110211193561554,
        -0.01850687712430954,
        0.017810247838497162,
        -0.06680688261985779,
        0.04826423525810242,
        -0.036580316722393036,
        0.1496233195066452,
        0.1182151511311531,
        -0.14095914363861084,
        -0.08062554895877838,
        -0.14772820472717285,
        -0.057653240859508514,
        -0.13208529353141785,
        -0.004972788970917463,
        -0.013052309863269329,
        0.12653306126594543,
        0.020306263118982315,
        -0.12359920889139175,
        -0.01764860562980175,
        0.03251826763153076,
        0.18815596401691437,
        -0.08002037554979324,
        0.0005590025102719665,
        -0.15231597423553467,
        -0.1622314304113388,
        -0.1970752775669098,
        0.07770144194364548,
        -0.2464555948972702,
        -0.15538442134857178,
        -0.10581716150045395,
        -0.13701307773590088,
        -0.005070817656815052,
        0.14037759602069855,
        -0.1239103227853775,
        -0.1885865479707718,
        -0.051459744572639465,
        0.09337377548217773,
        0.05097581446170807,
        -0.039696063846349716,
        -0.055656373500823975,
        0.032398026436567307,
        -0.1920488029718399,
        -0.15692676603794098,
        0.026270711794495583,
        0.16591863334178925,
        -0.15320569276809692,
        -0.11351115256547928,
        -0.0066329664550721645,
        -0.007508496288210154,
        -0.008992885239422321,
        -0.21999311447143555,
        -0.2135605663061142,
        0.09739623963832855,
        -0.04382385313510895,
        -0.027540642768144608,
        -0.2197464555501938,
        0.0035906718112528324,
        0.10079723596572876,
        0.1537749320268631,
        -0.2412976324558258,
        -0.009055671282112598,
        -0.06309789419174194,
        0.1930595487356186,
        -0.08102549612522125,
        -0.03695816546678543,
        -0.17036212980747223,
        -0.03856821730732918,
        0.09112139046192169,
        0.09094373881816864,
        -0.02375931106507778,
        0.08812026679515839,
        -0.1445177048444748,
        0.06795299798250198,
        -0.1502135843038559,
        0.07928167283535004,
        0.004681942518800497,
        0.13705188035964966,
        0.09011618047952652,
        -0.07993590086698532,
        0.013848788104951382,
        -0.09807463735342026,
        0.10382761061191559,
        -0.11001355946063995,
        0.17136874794960022,
        -0.10448485612869263,
        0.11870429664850235,
        -0.20566648244857788,
        -0.058599311858415604,
        -0.1475757211446762,
        -0.026963921263813972,
        -0.04409195855259895,
        -0.09750732034444809,
        -0.06444814801216125,
        -0.13208764791488647,
        -0.13188111782073975,
        0.17254891991615295,
        0.19366009533405304,
        0.02901381067931652,
        -0.07506019622087479,
        0.00331287132576108,
        0.13870926201343536,
        -0.09223823994398117,
        -0.07246077060699463,
        0.08034693449735641,
        -0.07143659144639969,
        0.03307512402534485,
        -0.15336181223392487,
        -0.057361628860235214,
        0.1620841920375824,
        -0.08979557454586029,
        -0.04086079075932503,
        -0.022724777460098267,
        -0.08986800163984299,
        -0.03921839967370033,
        0.04931502044200897,
        0.06504576653242111,
        -0.08760541677474976,
        0.05879395455121994,
        0.037288352847099304,
        0.08193831145763397,
        0.009706800803542137,
        0.17852738499641418,
        0.0700063407421112,
        0.06052204966545105,
        0.010204569436609745,
        0.061324916779994965,
        0.008723990060389042,
        -0.05539611726999283,
        -0.0019148578867316246,
        -0.26462218165397644,
        -0.1435115933418274,
        0.007056622300297022,
        0.04417940974235535,
        -0.07600054889917374,
        -0.2596322000026703,
        -0.04743437469005585,
        0.10307793319225311,
        0.027630876749753952,
        -0.055860087275505066,
        -0.026281842961907387,
        -0.0045538656413555145,
        -0.06554222851991653,
        -0.06143578141927719,
        -0.09353639930486679,
        0.06374930590391159,
        -0.0022235913202166557,
        -0.16092953085899353,
        0.06629474461078644,
        0.022920845076441765,
        -0.14774639904499054,
        -0.007989443838596344,
        0.01354171521961689,
        0.0033589776139706373,
        -0.12574650347232819,
        -0.1420593410730362,
        -0.028287285938858986,
        0.04260978475213051,
        -0.2021879255771637,
        0.12384476512670517,
        -0.0571824349462986,
        -0.044840458780527115,
        -0.014904478564858437,
        0.17008402943611145,
        0.07359664142131805,
        0.07741796970367432,
        -0.007634694222360849,
        -0.014251349493861198,
        -0.06630287319421768,
        -0.16172479093074799,
        0.05647702142596245,
        0.021105943247675896,
        -0.187153622508049,
        0.10065758973360062,
        -0.13028530776500702,
        -0.09925216436386108,
        0.08326458930969238,
        -0.0886983796954155,
        0.18004633486270905,
        -0.17882534861564636,
        0.029944181442260742,
        -0.10282313823699951,
        0.035496726632118225,
        0.06571821123361588,
        0.06193554401397705,
        -0.10009751468896866,
        0.0867941603064537,
        0.00042947905603796244,
        -0.02844989113509655,
        -0.16809456050395966,
        -0.0607871413230896,
        0.08175297826528549,
        -0.06379672884941101,
        -0.03200223296880722,
        -0.1977650225162506,
        -0.07581918686628342,
        -0.15025533735752106,
        -0.010737474076449871,
        -0.018807722255587578,
        -0.12528684735298157,
        -0.026132259517908096,
        -0.2601606249809265,
        0.004329508636146784,
        -0.022241409868001938,
        -0.060545895248651505,
        0.052827101200819016,
        -0.007980569265782833,
        0.035030994564294815,
        -0.20407287776470184,
        -0.07727660238742828,
        -0.12641198933124542,
        0.045442014932632446,
        0.06803863495588303,
        -0.040616221725940704,
        0.046590983867645264,
        -0.06259377300739288,
        -0.07953345775604248,
        -0.18668492138385773,
        -0.20635485649108887,
        -0.07712949812412262,
        -0.14863058924674988,
        0.12505380809307098,
        -0.023214180022478104,
        0.0006289606681093574,
        -0.0955914556980133,
        0.1016744077205658,
        0.17047762870788574,
        0.1258954107761383,
        -0.16564740240573883,
        0.07670849561691284,
        -0.025704050436615944,
        -0.08521392941474915,
        -0.08233977109193802,
        -0.05548657104372978,
        -0.08811209350824356,
        -0.017949556931853294,
        0.006924534682184458,
        -0.1460818350315094,
        0.08726783096790314,
        0.052793532609939575,
        0.0406578928232193,
        -0.028423450887203217,
        -0.13357768952846527,
        -0.15430974960327148,
        0.0799178034067154,
        -0.04374139755964279,
        -0.012038448825478554,
        -0.19423271715641022,
        0.05684046074748039,
        -0.23583044111728668,
        0.0955071896314621,
        0.16053512692451477,
        0.17222918570041656,
        -0.08246336132287979,
        -0.08839334547519684,
        -0.044077347964048386,
        -0.18763647973537445,
        -0.03562389314174652,
        0.06590843945741653,
        -0.0806199312210083,
        -0.1363297998905182,
        0.002147920662537217,
        0.06951740384101868,
        0.060692448168992996,
        -0.10660160332918167,
        -0.07339118421077728,
        -0.01931820437312126,
        -0.12637029588222504,
        -0.10832899063825607,
        -0.18615707755088806,
        0.033410247415304184,
        -0.022817052900791168,
        0.16026455163955688,
        -0.07121051847934723,
        -0.5606262683868408,
        0.19739970564842224,
        0.09237753599882126,
        -0.002747313119471073,
        -0.27682068943977356,
        0.0783250704407692,
        0.1777953803539276,
        0.039011064916849136,
        -0.06762123852968216,
        0.16037429869174957,
        -0.41524365544319153,
        -0.18559333682060242,
        0.042271971702575684,
        0.16945034265518188,
        -0.6631794571876526,
        0.04980560764670372,
        -0.5566501617431641,
        0.02186155878007412,
        -0.33799684047698975,
        -0.0276409350335598,
        0.0014860829105600715,
        -0.037406887859106064,
        0.2437734603881836,
        0.05874165892601013,
        0.16163982450962067,
        0.17553836107254028,
        -0.04684170335531235,
        -0.024224841967225075,
        -0.1456698179244995,
        -0.007417165208607912,
        -0.1855093240737915,
        -0.1650138944387436,
        0.2452247142791748,
        0.49340716004371643,
        -0.1450999677181244,
        0.11642459779977798,
        -0.08652309328317642,
        -0.11295051127672195,
        -0.14234182238578796,
        -0.011777535080909729,
        -0.33852171897888184,
        -0.16985242068767548,
        0.10587631165981293,
        -0.010482460260391235,
        -0.2296510934829712,
        0.006039968226104975,
        0.0945245772600174,
        -0.045135341584682465,
        -0.1354386955499649,
        -0.12050963193178177,
        0.4492393136024475,
        0.1569570153951645,
        0.47759172320365906,
        0.07883023470640182,
        -0.7085890173912048,
        0.20571961998939514,
        0.0752180814743042,
        -0.16867201030254364,
        0.07533714920282364,
        -0.14821608364582062,
        0.23753897845745087,
        0.1616947501897812,
        -0.14275754988193512,
        -0.15631280839443207,
        -0.576664924621582,
        -0.30943286418914795,
        0.11245201528072357,
        -0.10970992594957352,
        -0.1565786898136139,
        -0.34601232409477234,
        -0.2818487584590912,
        0.050081655383110046,
        0.3411688208580017,
        0.37621060013771057,
        0.022277120500802994,
        -0.4519519805908203,
        -0.26175689697265625,
        -0.7324772477149963,
        -0.026007702574133873,
        0.05980626121163368,
        -0.3307822346687317,
        -0.16239672899246216,
        0.13120591640472412,
        -0.14934372901916504,
        0.06655391305685043,
        0.15268628299236298,
        0.056724000722169876,
        0.5170934200286865,
        -0.09722390025854111,
        -0.15292619168758392,
        -0.20007121562957764,
        -0.015721259638667107,
        0.04368497431278229,
        -0.11728968471288681,
        0.24274992942810059,
        -0.03712136670947075,
        -0.018890267238020897,
        0.015349309891462326,
        -0.20647482573986053,
        -0.014200108125805855,
        0.00047466170508414507,
        0.06189418584108353,
        -0.1764422059059143,
        -0.00971453357487917,
        -0.10289426892995834,
        -0.18658681213855743,
        -0.06443703919649124,
        -0.15364830195903778,
        0.015543898567557335,
        0.1262974590063095,
        0.0369369201362133,
        0.0072315349243581295,
        -0.12720312178134918,
        -0.11471082270145416,
        -0.14178472757339478,
        -0.08281811326742172,
        0.1325203776359558,
        -0.06306076794862747,
        -0.05328661575913429,
        -0.16114479303359985,
        -0.16837111115455627,
        0.1356588751077652,
        -0.05941477790474892,
        0.18463222682476044,
        0.025028789415955544,
        0.0925833061337471,
        -0.1319165825843811,
        -0.19040417671203613,
        -0.02802485227584839,
        0.34024617075920105,
        -0.049803245812654495,
        -0.11513600498437881,
        0.004196296911686659,
        -0.05500305816531181,
        -0.011722253635525703,
        -0.12113247066736221,
        -0.0697145164012909,
        -0.008238288573920727,
        0.1981053352355957,
        0.028195513412356377,
        0.1676909178495407,
        -0.1907515525817871,
        0.05187472328543663,
        -0.21134212613105774,
        -0.03471236675977707,
        0.00449427729472518,
        0.16602249443531036,
        -0.04171381890773773,
        -0.1039724126458168,
        -0.09274067729711533,
        0.013859089463949203,
        0.005217299796640873,
        0.0119679756462574,
        0.0993296355009079,
        -0.00870230607688427,
        -0.2538209855556488,
        -0.11732710152864456,
        -0.15814194083213806,
        0.2047015279531479,
        -0.08348860591650009,
        -0.1971902996301651,
        -0.05559269338846207,
        -0.05738769471645355,
        0.07928096503019333,
        -0.10006146132946014,
        -0.1003490760922432,
        0.15652760863304138,
        -0.037685245275497437,
        -0.039155323058366776,
        -0.0003322899283375591,
        -0.04105149954557419,
        0.013287808746099472,
        0.1287733018398285,
        -0.16544045507907867,
        0.1794007569551468,
        -0.0513090156018734,
        -0.04338981956243515,
        -0.12246223539113998,
        0.03425763547420502,
        0.015016138553619385,
        -0.009388058446347713,
        0.01914890855550766,
        0.08442453294992447,
        0.1529320627450943,
        -0.10111680626869202,
        -0.12333249300718307,
        -0.05617358908057213,
        -0.11099258810281754,
        -0.046901997178792953,
        -0.02595582790672779,
        -0.012004610151052475,
        0.07014437019824982,
        -0.08598334342241287,
        -0.032525911927223206,
        0.08008906990289688,
        -0.09349558502435684,
        -0.07956045866012573,
        -0.03658745810389519,
        -0.4560275375843048,
        0.0360238142311573,
        0.24118080735206604,
        -0.03866400197148323,
        -0.6488357782363892,
        -0.1075456514954567,
        -0.4726344347000122,
        -0.19516514241695404,
        -0.20164723694324493,
        0.23098795115947723,
        -0.059892117977142334,
        0.17728711664676666,
        0.2245146632194519,
        0.21906304359436035,
        0.002355785807594657,
        -0.347657710313797,
        0.08199172466993332,
        -0.26471686363220215,
        0.2433537244796753,
        -0.02372736670076847,
        -0.09171541780233383,
        0.10377924889326096,
        -0.220760315656662,
        -0.15339502692222595,
        0.008967053145170212,
        -0.07214619964361191,
        0.09305796772241592,
        0.10394198447465897,
        -0.01771780103445053,
        0.11611797660589218,
        -0.21167725324630737,
        -0.06283221393823624,
        -0.4517776072025299,
        -0.023953823372721672,
        -0.41889187693595886,
        -0.5262391567230225,
        -0.031220687553286552,
        -0.002112108515575528,
        -0.28827837109565735,
        0.1614616960287094,
        -0.06430379301309586,
        -0.018194591626524925,
        0.21358950436115265,
        0.169014111161232,
        -0.08307836204767227,
        0.08792801201343536,
        0.45597514510154724,
        -0.6017517447471619,
        -0.06709717214107513,
        -0.16155222058296204,
        0.09788720309734344,
        0.13989533483982086,
        0.0818575918674469,
        0.03852539137005806,
        -0.2513951063156128,
        -0.36058998107910156,
        -0.1888428032398224,
        -0.17760226130485535,
        0.248098686337471,
        0.11284497380256653,
        -0.15807759761810303,
        -0.8321375250816345,
        -0.0046579232439398766,
        0.10781731456518173,
        0.23622196912765503,
        -0.2065211832523346,
        0.302245557308197,
        -0.1515302062034607,
        -0.15802206099033356,
        0.2054947018623352,
        0.003076857654377818,
        0.4534848928451538,
        -0.49381357431411743,
        0.00410484941676259,
        -0.6038287878036499,
        -0.06832638382911682,
        0.034047674387693405,
        0.15898972749710083,
        -0.21057377755641937,
        0.3995485007762909,
        -0.027993714436888695,
        0.17101338505744934,
        -0.3093288540840149,
        0.12126082926988602,
        0.11501071602106094,
        0.11823489516973495,
        0.18644973635673523,
        0.16937829554080963,
        -0.7418301701545715,
        -1.0505526065826416,
        0.16680559515953064,
        0.2474958896636963,
        0.562766969203949,
        0.029832402244210243,
        -0.07760211080312729,
        0.063287653028965,
        -0.14350008964538574,
        0.11159592866897583,
        -0.10437873005867004,
        0.14724721014499664,
        0.07923690229654312,
        0.011524788103997707,
        -0.08799484372138977,
        -0.07803912460803986,
        0.0005899895331822336,
        0.16166509687900543,
        0.060246847569942474,
        0.22372765839099884,
        -0.11837667226791382,
        0.0048665814101696014,
        -0.1610063910484314,
        -0.08453552424907684,
        -0.01808435283601284,
        0.01139469351619482,
        0.10199284553527832,
        0.062360141426324844,
        0.15641666948795319,
        0.027292728424072266,
        0.19619062542915344,
        0.34197619557380676,
        -0.1643909364938736,
        0.08974149078130722,
        -0.008520648814737797,
        -0.14238598942756653,
        -0.027044333517551422,
        0.013796512968838215,
        0.21561388671398163,
        0.034938640892505646,
        -0.11742180585861206,
        0.1983013153076172,
        -0.11623129993677139,
        0.005288338754326105,
        -0.7821707725524902,
        0.020810432732105255,
        0.24654360115528107,
        0.189315527677536,
        -0.12089626491069794,
        -0.14416621625423431,
        0.18136240541934967,
        -0.1378336399793625,
        0.008432107977569103,
        -0.029953138902783394,
        -0.01863710768520832,
        -0.03912835940718651,
        0.1451481729745865,
        -0.2048611342906952,
        0.006921868771314621,
        0.01278647594153881,
        -0.31830719113349915,
        -0.1376296728849411,
        -0.003290127497166395,
        -0.01633203588426113,
        0.043660592287778854,
        0.14174918830394745,
        -0.07106360793113708,
        -0.03431933373212814,
        -0.40945500135421753,
        0.321603387594223,
        0.13313543796539307,
        0.030502721667289734,
        0.06434572488069534,
        0.45320308208465576,
        -0.29173627495765686,
        0.20908106863498688,
        -0.11807433515787125,
        -0.106208935379982,
        -0.5370937585830688,
        -0.00800277292728424,
        0.28497183322906494,
        0.2103750854730606,
        -0.5643872022628784,
        -0.3099518418312073,
        -0.04362531006336212,
        -0.04229190945625305,
        0.09786764532327652,
        0.20421455800533295,
        0.10872625559568405,
        0.08564729243516922,
        -0.047229018062353134,
        -0.0025866632349789143,
        0.09470180422067642,
        -0.05649574100971222,
        -0.07041408866643906,
        -0.05607816204428673,
        0.010240383446216583,
        -0.1039203554391861,
        0.2482742965221405,
        0.09332042932510376,
        0.2218645066022873,
        -0.1813782900571823,
        0.023064585402607918,
        -0.19587500393390656,
        0.3407130241394043,
        -0.13360965251922607,
        0.12665273249149323,
        0.0930030345916748,
        0.1329115480184555,
        -0.15559126436710358,
        -0.0629095509648323,
        -0.13685019314289093,
        0.06006660312414169,
        0.18743079900741577,
        -0.007398251444101334,
        0.04761897400021553,
        -0.2786264419555664,
        -0.11105984449386597,
        -0.0628882572054863,
        -0.009206046350300312,
        0.15425345301628113,
        0.1048663780093193,
        0.16225460171699524,
        0.0646839439868927,
        -0.10575709491968155,
        0.1252543032169342,
        -0.13857653737068176,
        -0.2749324440956116,
        0.5326544046401978,
        0.011107537895441055,
        -0.29824182391166687,
        -0.2435699999332428,
        -0.23279953002929688,
        0.18774522840976715,
        4.031282151117921e-05,
        0.12469292432069778,
        0.048732176423072815,
        -0.05711066350340843,
        0.09201698005199432,
        0.04221072793006897,
        -0.1182713583111763,
        -0.29198989272117615,
        0.061013851314783096,
        0.01936134696006775,
        0.32200732827186584,
        -0.19607535004615784,
        -0.20997492969036102,
        -0.10936630517244339,
        -0.15581177175045013,
        0.062379296869039536,
        0.17648890614509583,
        -0.021301602944731712,
        0.03640874847769737,
        0.10432488471269608,
        -0.3692384958267212,
        -0.22219699621200562,
        -0.10812661051750183,
        -0.18662220239639282,
        -0.11522064357995987,
        -0.04103342816233635,
        -0.1496099829673767,
        0.09361492842435837,
        -0.13095755875110626,
        -0.3627799153327942,
        -0.06307103484869003,
        -0.03899133950471878,
        -0.11861003935337067,
        0.014244161546230316,
        0.7725189924240112,
        -0.3034185767173767,
        -0.06282053142786026,
        0.15945735573768616,
        -0.04091868922114372,
        0.3067101538181305,
        -0.31723037362098694,
        -0.31122976541519165,
        -0.04766911268234253,
        0.016393093392252922,
        0.20410680770874023,
        -0.03128649294376373,
        -0.12476406246423721,
        -0.2893815040588379,
        -0.6399868726730347,
        -0.13145755231380463,
        0.1882195770740509,
        -0.08627702295780182,
        -0.12667538225650787,
        0.09198892116546631,
        -0.18661688268184662,
        0.38094615936279297,
        0.06170821189880371,
        -0.079757921397686,
        0.09092190116643906,
        -0.019037941470742226,
        0.09528496861457825,
        0.34476733207702637,
        0.05036615952849388,
        0.020266199484467506,
        -0.16730321943759918,
        0.17357008159160614,
        0.00015661360521335155,
        -0.046708229929208755,
        0.1826067417860031,
        0.21384485065937042,
        -0.4094089865684509,
        0.012976658530533314,
        0.02278629131615162,
        -0.12748824059963226,
        -0.2669983208179474,
        0.13731196522712708,
        0.08371566236019135,
        0.08955702930688858,
        0.13218335807323456,
        0.19561037421226501,
        -0.34657254815101624,
        0.2328483760356903,
        0.22829203307628632,
        -0.1435432732105255,
        0.2934974431991577,
        -0.20382729172706604,
        -0.14179258048534393,
        -0.34277093410491943,
        -0.03415311127901077,
        0.11630970239639282,
        0.20384156703948975,
        0.009679385460913181,
        0.12981542944908142,
        -0.34077978134155273,
        0.04041358828544617,
        0.2886689305305481,
        0.07394662499427795,
        -0.024248292669653893,
        0.33636218309402466,
        -0.2749546468257904,
        0.3022187352180481,
        -0.12641899287700653,
        0.1137017011642456,
        -0.029126102104783058,
        0.41458725929260254,
        0.17606593668460846,
        0.20390282571315765,
        -0.08843079954385757,
        -0.007341527845710516,
        -0.17237938940525055,
        0.01429507415741682,
        0.21910510957241058,
        -0.25616782903671265,
        -0.16348625719547272,
        -0.14009076356887817,
        -0.047761935740709305,
        0.003977818414568901,
        -0.0633937194943428,
        -0.053125400096178055,
        -0.038625117391347885,
        -0.09441433846950531,
        0.010857651941478252,
        -0.04808168113231659,
        0.13247188925743103,
        -0.16650421917438507,
        0.16664758324623108,
        0.029176943004131317,
        -0.11521463841199875,
        0.22185471653938293,
        -0.024280821904540062,
        -0.9039089679718018,
        0.041156284511089325,
        -0.18064925074577332,
        0.8419803977012634,
        0.33273565769195557,
        -0.6433135867118835,
        -0.2551983892917633,
        -0.059216469526290894,
        -0.17620648443698883,
        0.1086573675274849,
        -0.038000304251909256,
        -0.565304696559906,
        0.7623587846755981,
        -0.13849754631519318,
        0.20176152884960175,
        -0.18079273402690887,
        -0.040552787482738495,
        -0.09639699757099152,
        0.4095499813556671,
        -0.07379376888275146,
        0.18152785301208496,
        -0.11150206625461578,
        -0.2569751441478729,
        -0.13625505566596985,
        0.3358921706676483,
        0.2662959396839142,
        -0.11049368232488632,
        -0.36361369490623474,
        -0.09426027536392212,
        -0.18710674345493317,
        0.1346374899148941,
        -0.2163235992193222,
        0.09265752136707306,
        -0.004712138324975967,
        -0.5052674412727356,
        -0.10261815786361694,
        -0.19140945374965668,
        0.1029837429523468,
        0.013982601463794708,
        0.12172545492649078,
        -0.1945538967847824,
        -0.33855172991752625,
        -0.04273029416799545,
        -0.09345252066850662,
        0.23238185048103333,
        -0.06282033771276474,
        -0.08753024786710739,
        0.0022414587438106537,
        0.084869883954525,
        -0.09804687649011612,
        -0.0031592955347150564,
        -0.015254204161465168,
        -0.038611337542533875,
        0.009248077869415283,
        0.11882469058036804,
        0.20088449120521545,
        -0.020752880722284317,
        0.0108905378729105,
        0.03993725776672363,
        0.04049136862158775,
        -0.14230920374393463,
        0.13378117978572845,
        -0.1446029096841812,
        -0.08618831634521484,
        -0.03857387229800224,
        0.04636179655790329,
        -0.011086118407547474,
        0.07241471111774445,
        -0.09497196227312088,
        -0.16745306551456451,
        -0.08289539068937302,
        0.013636164367198944,
        0.08932793885469437,
        0.10516953468322754,
        0.07588140666484833,
        -0.2105199098587036,
        0.027137700468301773,
        -0.13913361728191376,
        -0.03519687429070473,
        -0.12901124358177185,
        -0.0980168953537941,
        -0.04067378118634224,
        -0.24558840692043304,
        0.03978658467531204,
        0.14272946119308472,
        -0.016670718789100647,
        -0.04678335040807724,
        0.0813019722700119,
        -0.08753933012485504,
        -0.043340202420949936,
        -0.04582950100302696,
        0.0012995476135984063,
        0.0032200939022004604,
        -0.18678057193756104,
        0.005485819187015295,
        0.11240759491920471,
        0.18237850069999695,
        -0.0010095215402543545,
        -0.13827848434448242,
        -0.008826474659144878,
        -0.12908270955085754,
        -0.20929640531539917,
        -0.007603705860674381,
        -0.13493162393569946,
        -0.1481509655714035,
        0.0810091495513916,
        -0.097877137362957,
        0.019154977053403854,
        0.1770966798067093,
        -0.10362071543931961,
        -0.13866792619228363,
        0.08228486031293869,
        0.11633423715829849,
        -0.16692204773426056,
        0.006726599298417568,
        -0.1269151121377945,
        -0.2000184953212738,
        -0.21404549479484558,
        -0.20591850578784943,
        -0.17185471951961517,
        0.035374678671360016,
        0.17608563601970673,
        0.03578881546854973,
        -0.06888112425804138,
        -0.008887623436748981,
        -0.10266436636447906,
        -0.1350741982460022,
        0.0808916911482811,
        0.04171369969844818,
        -0.012922598980367184,
        0.07175000756978989,
        -0.10835573822259903,
        0.03505629301071167,
        -0.12218982726335526,
        -0.0059446170926094055,
        0.06748330593109131,
        -0.24111302196979523,
        0.036733824759721756,
        -0.17562368512153625,
        0.12221165746450424,
        0.0037760185077786446,
        -0.15893712639808655,
        0.05352146923542023,
        -0.1982075572013855,
        -0.17654772102832794,
        -0.05836496129631996,
        0.0008724664221517742,
        0.07445606589317322,
        0.06187782809138298,
        0.0570644810795784,
        0.2848321497440338,
        0.27703753113746643,
        -0.42061078548431396,
        -0.3486989140510559,
        -0.1042989119887352,
        0.12865734100341797,
        0.03333806246519089,
        0.09210871160030365,
        -0.02313385158777237,
        -0.06835060566663742,
        0.043595653027296066,
        -0.05501279979944229,
        0.053336866199970245,
        0.06529255956411362,
        -0.2673843502998352,
        -0.1302320957183838,
        0.1293157935142517,
        -0.49061447381973267,
        0.14764004945755005,
        0.03409101814031601,
        -0.04760050028562546,
        -0.05494925007224083,
        0.21747244894504547,
        -0.08225329220294952,
        0.07713385671377182,
        -0.05404089018702507,
        -0.04645053297281265,
        -0.35468974709510803,
        -0.18484503030776978,
        -0.04552663862705231,
        0.4096117615699768,
        -0.0032732265535742044,
        0.03583779186010361,
        0.18196198344230652,
        0.02662220038473606,
        -0.00784009974449873,
        -0.03665013238787651,
        0.030944563448429108,
        -0.10886275768280029,
        0.1777745485305786,
        0.06357771903276443,
        0.007491372991353273,
        0.09709146618843079,
        -0.11040420085191727,
        -0.3921435475349426,
        -0.35600215196609497,
        0.04522784799337387,
        -0.11494887620210648,
        0.14852942526340485,
        -0.19590701162815094,
        0.10556606948375702,
        0.0037904332857578993,
        0.39647427201271057,
        0.18038243055343628,
        -0.3801462948322296,
        0.1463109850883484,
        0.08610385656356812,
        0.0009309205343015492,
        0.002829865086823702,
        -0.25472718477249146,
        -0.2002042829990387,
        -0.15914855897426605,
        -0.1185811311006546,
        0.1707439124584198,
        -0.32999032735824585,
        0.04138747230172157,
        0.2356543391942978,
        -0.2548504173755646,
        0.136882483959198,
        -0.027521785348653793,
        -0.36904725432395935,
        0.032846249639987946,
        -0.02950112521648407,
        0.2269049882888794,
        -0.20357774198055267,
        -0.19088305532932281,
        0.06612731516361237,
        -0.10119660943746567,
        0.178349107503891,
        -0.11647330224514008,
        -0.6840330362319946,
        -0.25100454688072205,
        0.16327284276485443,
        0.09280738234519958,
        -0.3538024127483368,
        0.06949102878570557,
        -0.1509549617767334,
        0.25130027532577515,
        -0.09775061905384064,
        -0.3045693337917328,
        -0.19721005856990814,
        0.3065490126609802,
        -0.03416907414793968,
        0.09528765082359314,
        -0.09779088944196701,
        0.029997631907463074,
        -0.19289575517177582,
        -0.08815586566925049,
        0.012568759731948376,
        0.017246408388018608,
        -0.15752750635147095,
        -0.12170227617025375,
        -0.12574121356010437,
        0.051587868481874466,
        -0.05874359607696533,
        -0.15071320533752441,
        0.12239441275596619,
        0.13759088516235352,
        0.024290792644023895,
        -0.0015359653625637293,
        -0.10217571258544922,
        -0.16669808328151703,
        -0.07524841278791428,
        -0.14931213855743408,
        0.10202556848526001,
        -0.0364517904818058,
        -0.08076697587966919,
        -0.22997039556503296,
        -0.028739089146256447,
        -0.21376194059848785,
        -0.20368483662605286,
        0.15134933590888977,
        -0.09361641108989716,
        0.028044138103723526,
        -0.08865722268819809,
        0.01809750497341156,
        -0.12754499912261963,
        0.0701013132929802,
        0.1120150238275528,
        0.09473665058612823,
        -0.03085777908563614,
        0.08631631731987,
        -0.0020086464937776327,
        -0.16799892485141754,
        -0.020308904349803925,
        -0.03810812905430794,
        0.023541294038295746,
        -0.16036510467529297,
        0.023933812975883484,
        -0.0360160730779171,
        -0.09340113401412964,
        -0.14850467443466187,
        -0.028680913150310516,
        -0.021434281021356583,
        0.05529800057411194,
        0.2076839655637741,
        0.07257865369319916,
        -0.07486613094806671,
        0.034492578357458115,
        -0.08046204596757889,
        -0.15733405947685242,
        -0.0768272802233696,
        -0.09199533611536026,
        0.007918905466794968,
        -0.14151331782341003,
        0.028374210000038147,
        -0.09049150347709656,
        -0.04504157975316048,
        -0.15866638720035553,
        -0.11136046797037125,
        -0.046351321041584015,
        -0.08659504354000092,
        -0.0670156478881836,
        -0.05324524641036987,
        -0.21264661848545074,
        0.01288329903036356,
        0.03426255285739899,
        -0.0659666657447815,
        0.06350138038396835,
        -0.07496730983257294,
        -0.12121018022298813,
        -0.06554204970598221,
        0.08692194521427155,
        -0.11169970780611038,
        0.0728374570608139,
        0.08557554334402084,
        0.04516100883483887,
        0.0821496844291687,
        0.09662333130836487,
        0.09879858046770096,
        -0.22936713695526123,
        -0.10945195704698563,
        0.05181531980633736,
        -0.11316005140542984,
        0.15259245038032532,
        -0.12464699149131775,
        0.13068266212940216,
        0.021430645138025284,
        0.011497675441205502,
        -0.21262478828430176,
        -0.11900671571493149,
        0.018702048808336258,
        -0.0012423440348356962,
        0.079042948782444,
        0.10196772962808609,
        0.012721195816993713,
        -0.028336212038993835,
        -0.13180768489837646,
        -0.042704544961452484,
        -0.2006913274526596,
        0.14300870895385742,
        0.013267549686133862,
        0.025409337133169174,
        -0.2063220888376236,
        -0.03339659795165062,
        0.052964985370635986,
        -0.05395064130425453,
        -0.020147833973169327,
        0.12075666338205338,
        -0.02784719504415989,
        0.1060691699385643,
        0.015928102657198906,
        -0.14420682191848755,
        -0.24029216170310974,
        -0.15370051562786102,
        -0.11572523415088654,
        -0.1569635421037674,
        0.06765886396169662,
        0.10564363747835159,
        -0.17194759845733643,
        -0.040660589933395386,
        0.11897449940443039,
        0.055212777107954025,
        0.18437646329402924,
        -0.030604088678956032,
        0.06444460153579712,
        -0.08719249814748764,
        -0.12137337028980255,
        0.060477711260318756,
        -0.0739852637052536,
        0.08990411460399628,
        -0.03195991367101669,
        -0.0912923663854599,
        -0.005520211532711983,
        0.12945863604545593,
        -0.09164372831583023,
        -0.06475568562746048,
        0.024430327117443085,
        -0.2124086618423462,
        0.15452376008033752,
        0.03358973562717438,
        0.09489768743515015,
        -0.09330042451620102,
        -0.0399186909198761,
        0.05182398855686188,
        0.0035380939953029156,
        -0.137579083442688,
        0.11411600559949875,
        -0.01691070757806301,
        -0.0617881640791893,
        -0.011623650789260864,
        -0.15601211786270142,
        -0.04966207966208458,
        -0.13001927733421326,
        -0.10752342641353607,
        0.08842761069536209,
        -0.05537176504731178,
        -0.05220869556069374,
        -0.026323478668928146,
        0.026450449600815773,
        0.041494715958833694,
        -0.15505707263946533,
        -0.052915215492248535,
        0.01720821112394333,
        -0.02163066528737545,
        -0.09806104004383087,
        0.13265497982501984,
        -0.04134099930524826,
        0.06233718618750572,
        -0.04652656242251396,
        -0.05653808265924454,
        0.11671306192874908,
        -0.0623648464679718,
        -0.02373313345015049,
        -0.005909631960093975,
        0.027244091033935547,
        -0.01905844733119011,
        0.03484078869223595,
        0.08661860972642899,
        -0.08319532871246338,
        -0.13804174959659576,
        -0.09364696592092514,
        -0.05280531942844391,
        0.008291036821901798,
        0.15469904243946075,
        -0.05274486914277077,
        -0.023828186094760895,
        0.10188086330890656,
        0.0944335088133812,
        0.07498736679553986,
        0.0668637752532959,
        -0.1477316915988922,
        0.04126519337296486,
        0.17899161577224731,
        0.00037310790503397584,
        0.0731046199798584,
        -0.21642914414405823,
        -0.031639616936445236,
        -0.2604006826877594,
        0.04910121485590935,
        0.047477804124355316,
        -0.1703231930732727,
        -0.1466803252696991,
        -0.09747238457202911,
        0.12276651710271835,
        0.04110398888587952,
        0.027951175346970558,
        -0.09031473845243454,
        0.04550616443157196,
        -0.04015786200761795,
        0.0073198359459638596,
        -0.16159501671791077,
        -0.06491813063621521,
        -0.02431943640112877,
        -0.05447337031364441,
        -0.1792334020137787,
        -0.013356751762330532,
        0.05384986102581024,
        0.08115814626216888,
        -0.0834292322397232,
        0.08653025329113007,
        -0.12814673781394958,
        0.15586046874523163,
        0.10819654911756516,
        -0.0003650217840913683,
        -0.05100485682487488,
        0.07349288463592529,
        -0.1234174445271492,
        -0.17871534824371338,
        0.04854809120297432,
        -0.07080791145563126,
        0.018095044419169426,
        -0.05660676956176758,
        -0.05274753272533417,
        -0.02453226037323475,
        0.18390436470508575,
        0.02884475141763687,
        -0.014736777171492577,
        -0.12817096710205078,
        -0.10065165907144547,
        0.013335776515305042,
        -0.06709427386522293,
        0.07308310270309448,
        -0.16465212404727936,
        -0.02571003884077072,
        -0.04202719405293465,
        0.09971316903829575,
        -0.04408814385533333,
        -0.1337352693080902,
        0.03797934576869011,
        -0.1442890465259552,
        -0.020117634907364845,
        -0.026824025437235832,
        0.046951018273830414,
        -0.13116714358329773,
        -0.052798081189394,
        -0.19322939217090607,
        -0.09709787368774414,
        -0.0014791723806411028,
        -0.06230182200670242,
        -0.04976048320531845,
        -0.02562466450035572,
        -0.024054793640971184,
        -0.034781139343976974,
        0.08662400394678116,
        0.080527164041996,
        0.03192054480314255,
        -0.18341894447803497,
        0.046382345259189606,
        0.0960550382733345,
        0.10718543827533722,
        -0.11353799700737,
        -0.0600753016769886,
        -0.004943552892655134,
        -0.05448002740740776,
        -0.08096861094236374,
        -0.046932872384786606,
        -0.08191104233264923,
        0.19537171721458435,
        -0.03006066381931305,
        -0.023239925503730774,
        -0.07248535752296448,
        -0.02451816014945507,
        -0.13335871696472168,
        0.059945449233055115,
        0.014512882567942142,
        -0.003510455833747983,
        -0.07540263235569,
        -0.05180162936449051,
        -0.12322180718183517,
        -0.007057590875774622,
        0.11672568321228027,
        -0.0861327052116394,
        -0.08240903913974762,
        -0.14155127108097076,
        -0.15673965215682983,
        0.019884532317519188,
        0.09043461829423904,
        -0.11258331686258316,
        -0.07462693750858307,
        -0.1735377311706543,
        -0.07884532958269119,
        0.03902046009898186,
        -0.12151674926280975,
        0.11539969593286514,
        -0.14692074060440063,
        -0.17820605635643005,
        -0.0413145013153553,
        0.02450292930006981,
        -0.02472810633480549,
        -0.1585528403520584,
        -0.03496449813246727,
        0.09570334851741791,
        0.02763611637055874,
        0.03641137480735779,
        0.17138910293579102,
        0.09480081498622894,
        -0.16538627445697784,
        0.09771736711263657,
        0.009483854286372662,
        -0.2793782353401184,
        -0.13448087871074677,
        -0.11232848465442657,
        -0.1767921894788742,
        -0.06457476317882538,
        0.15847352147102356,
        -0.06019062548875809,
        -0.06712088733911514,
        0.02367403917014599,
        0.009515929035842419,
        -0.22847634553909302,
        0.16306288540363312,
        -0.17139358818531036,
        -0.0365494042634964,
        -0.1908828467130661,
        0.11921956390142441,
        -0.09673792868852615,
        0.07640707492828369,
        0.15752144157886505,
        -0.06798645853996277,
        0.03544875606894493,
        0.10601074248552322,
        -0.06497302651405334,
        0.09409117698669434,
        -0.09761472046375275,
        -0.12958639860153198,
        0.021830342710018158,
        0.04049723595380783,
        0.029703816398978233,
        0.07581388205289841,
        -0.08594097197055817,
        0.027462773025035858,
        -0.05934787914156914,
        0.0024143399205058813,
        0.1386539191007614,
        -0.17243598401546478,
        -0.15591581165790558,
        0.001656728913076222,
        0.06444143503904343,
        0.03174067661166191,
        0.10995593667030334,
        -0.2729969322681427,
        -0.04834732040762901,
        -0.007553078234195709,
        -0.0945899710059166,
        -0.17593081295490265,
        0.13726408779621124,
        0.022083379328250885,
        0.004934951663017273,
        -0.10604815930128098,
        -0.20026840269565582,
        0.14170384407043457,
        -0.019256940111517906,
        -0.2144012153148651,
        0.07160262018442154,
        -0.2275613248348236,
        0.044268738478422165,
        -0.014591037295758724,
        0.09753914177417755,
        -0.008105695247650146,
        0.16487687826156616,
        -0.10022592544555664,
        -0.016531487926840782,
        -0.0777185931801796,
        -0.10123925656080246,
        -0.1391894668340683,
        -0.06637805700302124,
        0.0997920036315918,
        -0.10746904462575912,
        0.05284993350505829,
        0.004904096480458975,
        -0.0781555324792862,
        0.024961739778518677,
        -0.07322320342063904,
        -0.15243420004844666,
        -0.19824135303497314,
        -0.011087986640632153,
        -0.14941313862800598,
        0.17666099965572357,
        -0.0723230317234993,
        0.15963585674762726,
        -0.09798860549926758,
        -0.07616507261991501,
        -0.023118695244193077,
        0.0008039695676416159,
        0.09871793538331985,
        -0.0535968616604805,
        -0.2517608106136322,
        0.20285412669181824,
        -0.05043399706482887,
        0.06293918937444687,
        0.0009830681374296546,
        -0.3379376530647278,
        -0.14895926415920258,
        0.24223217368125916,
        -0.08160098642110825,
        -0.3212747573852539,
        0.26270586252212524,
        -0.3319426476955414,
        -0.01452461164444685,
        -0.30815887451171875,
        0.07556071132421494,
        -0.10374758392572403,
        -0.012957355007529259,
        -0.13581687211990356,
        0.0015952022513374686,
        -0.07051362842321396,
        -0.04373737797141075,
        0.03770117461681366,
        0.18168552219867706,
        -0.040441129356622696,
        -0.05883520841598511,
        0.18536123633384705,
        -0.029164206236600876,
        -0.17653006315231323,
        -0.006326016504317522,
        0.19795237481594086,
        -0.15307635068893433,
        -0.14296501874923706,
        -0.05199434608221054,
        -0.2949036657810211,
        -0.3577119708061218,
        0.11767013370990753,
        -0.10964427143335342,
        -0.17214450240135193,
        -0.11535438895225525,
        0.08149731159210205,
        0.07070986181497574,
        -0.16716690361499786,
        0.12630966305732727,
        -0.23920875787734985,
        -0.006552302744239569,
        -0.05678067356348038,
        -0.3102940320968628,
        0.5795027017593384,
        -0.05882135033607483,
        -0.45581814646720886,
        0.08770626783370972,
        -0.014106745831668377,
        0.5378767848014832,
        -0.10796888917684555,
        -0.08653295785188675,
        0.03294258564710617,
        -0.11785036325454712,
        0.031925301998853683,
        -0.20347321033477783,
        -0.16015960276126862,
        0.17002198100090027,
        -0.0991264209151268,
        -0.22742728888988495,
        0.06936731189489365,
        0.12946802377700806,
        0.11680693179368973,
        0.11389714479446411,
        -0.18144388496875763,
        0.11160767078399658,
        -0.09179583936929703,
        -0.3111603558063507,
        0.029478831216692924,
        0.16982264816761017,
        -0.03495435416698456,
        0.3738802969455719,
        -0.40920838713645935,
        -0.0682329311966896,
        -0.19346000254154205,
        -0.02924502268433571,
        0.034915681928396225,
        0.16541965305805206,
        0.04950965568423271,
        -0.08049371838569641,
        -0.49412521719932556,
        -0.3341987431049347,
        -0.1282849907875061,
        0.052929945290088654,
        -0.49481767416000366,
        0.0022939026821404696,
        0.22765472531318665,
        0.025713840499520302,
        -0.04944998398423195,
        0.049767255783081055,
        -0.1606064885854721,
        -0.06860534846782684,
        0.060398709028959274,
        -0.01628541760146618,
        -0.11323932558298111,
        0.06603816896677017,
        -0.10176925361156464,
        -0.06195927411317825,
        0.15030157566070557,
        0.009671144187450409,
        -0.2066996842622757,
        0.1687394231557846,
        0.030741671100258827,
        -0.02638346701860428,
        -0.2008349895477295,
        -0.09624125808477402,
        -0.4020344316959381,
        -0.34411996603012085,
        -0.07256009429693222,
        -0.10252313315868378,
        0.1468311995267868,
        0.08631473779678345,
        0.05644938722252846,
        0.09285829961299896,
        -0.38076427578926086,
        0.04059654846787453,
        -0.0369274839758873,
        -0.15759728848934174,
        -0.025806836783885956,
        -0.029460130259394646,
        0.12277917563915253,
        -0.2178896814584732,
        0.0803239643573761,
        0.14289332926273346,
        0.05946602672338486,
        0.13475166261196136,
        0.017863770946860313,
        -0.00759132020175457,
        -0.052239105105400085,
        -0.03718242421746254,
        -0.20654550194740295,
        -0.06558030843734741,
        0.015732597559690475,
        -0.10908491164445877,
        0.005945893470197916,
        0.21784812211990356,
        0.11803296953439713,
        -0.03261924535036087,
        -0.4116734564304352,
        0.13079915940761566,
        -0.04879133775830269,
        -0.04763571918010712,
        -0.06425930559635162,
        0.014092653058469296,
        -0.4887847602367401,
        -0.08105585724115372,
        0.0462370328605175,
        -0.17476223409175873,
        -0.08961255103349686,
        0.07829166203737259,
        -0.11126086860895157,
        0.011981506831943989,
        0.1691625565290451,
        -0.17705923318862915,
        -0.024101728573441505,
        -0.3085936903953552,
        -0.15864020586013794,
        -0.14304275810718536,
        0.038708001375198364,
        -0.07173720747232437,
        -0.0241865124553442,
        0.06898974627256393,
        -0.17264607548713684,
        0.1380259245634079,
        -0.06516921520233154,
        -0.07610851526260376,
        -0.14260394871234894,
        0.06536804139614105,
        0.07920598983764648,
        -0.15734516084194183,
        -0.14487747848033905,
        -0.001000239746645093,
        -0.5153871774673462,
        -0.17593127489089966,
        -0.5292045474052429,
        0.06288271397352219,
        -0.45843061804771423,
        0.06850827485322952,
        -0.19540128111839294,
        0.06953279674053192,
        -0.013876759447157383,
        -0.24188220500946045,
        -0.001203605905175209,
        0.006374715827405453,
        0.4016452729701996,
        0.1554235816001892,
        -0.1427430808544159,
        -0.004378147888928652,
        -0.1374981701374054,
        -0.07778873294591904,
        -0.04324477165937424,
        -0.10861145704984665,
        0.03258730471134186,
        -0.004892126191407442,
        -0.05446867644786835,
        0.02834666706621647,
        -0.1499556601047516,
        -0.09962548315525055,
        -0.14782801270484924,
        0.00941137969493866,
        0.1530100554227829,
        -0.029175806790590286,
        -0.10025645792484283,
        0.04808703064918518,
        -0.06171893700957298,
        0.09102610498666763,
        0.09018979966640472,
        0.19574716687202454,
        -0.17490266263484955,
        -0.08874600380659103,
        0.022383930161595345,
        0.04763847589492798,
        -0.10872413218021393,
        0.02978161908686161,
        -0.01802307367324829,
        -0.12495418637990952,
        -0.12296672910451889,
        -0.06924446672201157,
        0.027723785489797592,
        0.013540593907237053,
        0.051170457154512405,
        -0.1381925493478775,
        0.09393811970949173,
        -0.025211315602064133,
        0.11312849074602127,
        0.11261091381311417,
        -0.11938539147377014,
        -0.06780621409416199,
        0.06294647604227066,
        -0.051747143268585205,
        -0.07548295706510544,
        0.006268623750656843,
        0.027268357574939728,
        0.113348588347435,
        -0.15670032799243927,
        -0.018308432772755623,
        -0.13821160793304443,
        -0.05226501077413559,
        -0.08819498866796494,
        0.04942156746983528,
        0.05306865647435188,
        -0.11062499135732651,
        -0.1166296899318695,
        -0.1856735348701477,
        -0.06409336626529694,
        -0.2114602029323578,
        0.05252503976225853,
        -0.07069031894207001,
        0.08112361282110214,
        0.02378622069954872,
        -0.05926559492945671,
        0.08685968816280365,
        -0.12835559248924255,
        -0.0721353217959404,
        0.04116256907582283,
        0.030959738418459892,
        -0.12212855368852615,
        0.014046404510736465,
        0.08794526010751724,
        -0.16890646517276764,
        -0.050754792988300323,
        -0.04555736854672432,
        -0.027759000658988953,
        -0.18565510213375092,
        -0.07732454687356949,
        -0.23084430396556854,
        0.05474931374192238,
        -0.060702547430992126,
        -0.01798851042985916,
        -0.11976968497037888,
        0.10437142848968506,
        -0.014024757780134678,
        0.0237723458558321,
        0.028796371072530746,
        -0.02248544804751873,
        0.07051891088485718,
        0.10521285980939865,
        -0.035978611558675766,
        -0.11419878900051117,
        0.11745918542146683,
        -0.23400209844112396,
        0.06520035862922668,
        0.029166463762521744,
        0.18887142837047577,
        -0.19260331988334656,
        0.041809819638729095,
        -0.01901698112487793,
        0.08805105835199356,
        0.0010276830289512873,
        0.066985584795475,
        -0.08634762465953827,
        -0.044678397476673126,
        0.005163019057363272,
        -0.11764784157276154,
        0.10327033698558807,
        0.05781841278076172,
        0.017583932727575302,
        -0.2754981219768524,
        -0.13969266414642334,
        -0.10364498943090439,
        -0.381281316280365,
        0.1352672576904297,
        -0.34039929509162903,
        -0.7115474939346313,
        0.17964908480644226,
        -0.1333111822605133,
        0.2679498791694641,
        0.09875471889972687,
        -0.254077285528183,
        0.15393349528312683,
        0.13651707768440247,
        -0.15411962568759918,
        -0.1289166361093521,
        0.10535397380590439,
        -0.0846559926867485,
        -0.006633471231907606,
        -0.0400722473859787,
        -0.030917545780539513,
        -0.052530255168676376,
        -0.06980246305465698,
        -0.0072973668575286865,
        -0.013288471847772598,
        -0.0349191389977932,
        0.11073822528123856,
        -0.11075982451438904,
        0.1493939608335495,
        0.4179215431213379,
        0.10286224633455276,
        -0.06074899807572365,
        0.04005008563399315,
        -0.017558258026838303,
        -0.4248133599758148,
        -0.11701938509941101,
        -0.05722179636359215,
        -0.03785526379942894,
        0.019377440214157104,
        -0.02021218277513981,
        0.10918953269720078,
        0.11203757673501968,
        -0.09083661437034607,
        -0.2444247305393219,
        -0.1594761312007904,
        -0.009057914838194847,
        -0.31158801913261414,
        0.23843690752983093,
        -0.07743745297193527,
        0.03741529956459999,
        -0.2002381682395935,
        0.06291994452476501,
        0.11995768547058105,
        0.05272544175386429,
        -0.27740761637687683,
        -0.6128951907157898,
        -0.03054327704012394,
        0.05667678266763687,
        -0.13966087996959686,
        -0.21480487287044525,
        -0.13363713026046753,
        -0.5569612383842468,
        -0.1535709649324417,
        -0.17666465044021606,
        -0.021618686616420746,
        -0.1840554177761078,
        0.10955658555030823,
        0.16281649470329285,
        0.29586541652679443,
        0.020360177382826805,
        0.33220934867858887,
        0.018070943653583527,
        0.12424950301647186,
        -0.1638767570257187,
        -0.24262432754039764,
        -0.03282327950000763,
        0.03119872882962227,
        -0.0939505323767662,
        -0.06746391206979752,
        0.023126676678657532,
        0.09960176795721054,
        -0.09179709851741791,
        -0.04489413648843765,
        -0.3051460087299347,
        -0.3974741995334625,
        -0.10145048052072525,
        -0.1017422080039978,
        -0.04397532343864441,
        -0.04276399314403534,
        0.09129113703966141,
        -0.18264955282211304,
        -0.21358051896095276,
        -0.0633789598941803,
        -0.08153823018074036,
        -0.028482545167207718,
        -0.08324553817510605,
        -0.1333611011505127,
        -0.1093481257557869,
        0.02320072241127491,
        0.17245732247829437,
        0.13032233715057373,
        -0.0335267148911953,
        0.1488480567932129,
        -0.02423965372145176,
        0.08243924379348755,
        -0.1200234442949295,
        -0.07127441465854645,
        -0.15366150438785553,
        -0.0874963253736496,
        -0.1618318110704422,
        0.03440428897738457,
        -0.05328913778066635,
        0.06966819614171982,
        -0.19832873344421387,
        -0.002203957876190543,
        -0.20696590840816498,
        0.11386433988809586,
        -0.04612335190176964,
        -0.024320753291249275,
        -0.10240285098552704,
        -0.16575728356838226,
        0.037967488169670105,
        0.02249012142419815,
        0.08976638317108154,
        -0.08732283115386963,
        -0.10366162657737732,
        0.08376125246286392,
        -0.00849808007478714,
        0.03564057871699333,
        0.04946702718734741,
        -0.018357036635279655,
        0.11070352047681808,
        0.015146352350711823,
        0.04231811314821243,
        0.10458014905452728,
        -0.10870121419429779,
        0.07788360863924026,
        -0.047037526965141296,
        0.1219516396522522,
        0.0023522337432950735,
        0.10914717614650726,
        -0.022934719920158386,
        0.055991120636463165,
        -0.18128915131092072,
        0.05467033013701439,
        0.0025664062704890966,
        0.11949501931667328,
        0.04243971407413483,
        -0.18142862617969513,
        0.04900546371936798,
        -0.1291240006685257,
        0.2136135846376419,
        -0.1382221281528473,
        -0.1155465766787529,
        -0.05498902499675751,
        0.03539714589715004,
        -0.10923559218645096,
        0.07332395017147064,
        -0.005842608865350485,
        0.024851176887750626,
        -0.06426704674959183,
        0.10852761566638947,
        0.02432997152209282,
        -0.01352969091385603,
        -0.1245095431804657,
        -0.13578517735004425,
        -0.07655667513608932,
        -0.05364874005317688,
        -0.05123689025640488,
        0.09274500608444214,
        -0.06925240159034729,
        -0.007290507201105356,
        -0.04187501221895218,
        -0.07279710471630096,
        0.03859703242778778,
        -0.0936870351433754,
        -0.06496177613735199,
        0.05997978895902634,
        0.09610788524150848,
        0.13118062913417816,
        -0.10822833329439163,
        0.07753752917051315,
        0.10363302379846573,
        0.07298419624567032,
        -0.08803751319646835,
        -0.08155211061239243,
        0.04324975237250328,
        -0.07586467266082764,
        -0.05103803053498268,
        0.14134708046913147,
        -0.008752049878239632,
        -0.0649670660495758,
        -0.028757290914654732,
        -0.015053976327180862,
        -0.05042064189910889,
        -0.1432753950357437,
        -0.1953193098306656,
        -0.013619654811918736,
        0.08285144716501236,
        0.039540186524391174,
        0.026705607771873474,
        0.022437743842601776,
        0.014186921529471874,
        0.09530921280384064,
        0.14457319676876068,
        -0.15330515801906586,
        -0.22101420164108276,
        -0.18235142529010773,
        0.027558404952287674,
        0.056049738079309464,
        -0.12769198417663574,
        0.0450441837310791,
        -0.04226263239979744,
        0.09016729146242142,
        0.0018958357395604253,
        -0.013406672514975071,
        0.18852652609348297,
        -0.21205218136310577,
        0.09909141063690186,
        -0.04941278323531151,
        -0.14009860157966614,
        -0.0065237716771662235,
        0.04692412167787552,
        -0.02704920992255211,
        0.07432280480861664,
        0.1145913302898407,
        -0.09849131107330322,
        0.08518093079328537,
        -0.11560139060020447,
        -0.07561403512954712,
        0.20573583245277405,
        0.13324420154094696,
        -0.020775865763425827,
        0.1379975974559784,
        0.011570632457733154,
        0.027645915746688843,
        0.01340601034462452,
        0.05186445638537407,
        0.03911236673593521,
        0.09659862518310547,
        0.08903847634792328,
        -0.22604796290397644,
        -0.1558714509010315,
        -0.04715954512357712,
        0.02967965044081211,
        -0.029234321787953377,
        -0.07130678743124008,
        -0.056249383836984634,
        0.020399052649736404,
        -0.05291077494621277,
        -0.044504210352897644,
        0.0227836724370718,
